<?xml version="1.0"?>
<opencv_storage>
<stage10>
  <maxWeakCount>6</maxWeakCount>
  <stageThreshold>-8.9625364542007446e-01</stageThreshold>
  <weakClassifiers>
    <_>
      <internalNodes>
        0 -1 58228 2.3163533478509635e-04</internalNodes>
      <leafValues>
        5.3641682863235474e-01 -7.0189702510833740e-01</leafValues></_>
    <_>
      <internalNodes>
        0 -1 58228 -1.5761528629809618e-04</internalNodes>
      <leafValues>
        -8.0947732925415039e-01 3.4420707821846008e-01</leafValues></_>
    <_>
      <internalNodes>
        0 -1 75896 -4.7711398452520370e-02</internalNodes>
      <leafValues>
        4.4015005230903625e-01 -5.6478160619735718e-01</leafValues></_>
    <_>
      <internalNodes>
        0 -1 58256 7.6163765043020248e-03</internalNodes>
      <leafValues>
        -6.5743118524551392e-01 3.0878347158432007e-01</leafValues></_>
    <_>
      <internalNodes>
        0 -1 3357 1.3656845316290855e-02</internalNodes>
      <leafValues>
        -6.2690293788909912e-01 3.4888842701911926e-01</leafValues></_>
    <_>
      <internalNodes>
        0 -1 63671 7.6361245010048151e-04</internalNodes>
      <leafValues>
        -7.7532082796096802e-01 2.5013127923011780e-01</leafValues></_></weakClassifiers></stage10>
</opencv_storage>
